{"levels":[{"inputs":[0.4669036855693104,0.014966452480569159,0,0,0],"outputs":[0,0,0,0,0,0],"biases":[0.02246385625666166,0.602363516781604,0.7339033168266131,0.24008363035321834,0.4434833478092333,0.2621654701289197],"weights":[[0.046097768359823946,-0.38919260971549346,0.7374214741842247,0.42261652467987204,-0.44847286493877914,-0.6555177584345853],[-0.3483867462438273,0.27711728349408027,0.5751612151100994,0.457734101897562,0.3310001687411691,-0.20918461813259642],[0.2280971166962315,0.38194718989996,0.18376023572960556,-0.014107481891154985,0.21754825000680827,-0.03841217573117511],[0.09117930991866975,-0.22743492013446817,-0.4634262113482847,-0.722575202666971,-0.3411026347911612,0.7686891564704997],[0.10244032747886764,0.297537767641454,-0.0663913834793854,0.3862442216574518,0.6049407952608251,-0.47469776829621446]]},{"inputs":[0,0,0,0,0,0],"outputs":[1,0,0,0],"biases":[-0.4275086801368058,0.6367128343725894,0.2093366181132452,0.07893209512463521],"weights":[[0.16411778159226742,0.7577364560008056,-0.15088540163649194,-0.16557284967030106],[0.1787322923245121,-0.07455223500732669,0.11318091707138886,-0.694562426000173],[0.6731179200186844,0.29066486687790494,0.22127018649076685,-0.23819728592065859],[-0.2774056503069247,-0.1449001280497791,0.3043481463567395,-0.033809623023109886],[0.19928172206961578,0.07301049884276026,-0.494243038678676,0.06734589649147564],[-0.37565371529601765,0.19328019481317826,0.10993089456709237,0.51898649818051]]}]}