{"levels":[{"inputs":[0.5021561327326148,0.08010448129079428,0,0,0],"outputs":[1,0,0,1,0,0],"biases":[0.02668949754943523,0.5715374447570507,0.72205587967485,0.21253471016390613,0.5475150668438602,0.2548806523931121],"weights":[[0.1377017387840562,-0.4932384397924089,0.8063572263133363,0.4270514072400329,-0.38907892301493696,-0.7114335810125633],[-0.33663631552760565,0.3279627972060165,0.5716323051066974,0.5212207877947681,0.2841937530282318,-0.1465864539970387],[0.3173526577512327,0.31743387247585964,0.21856978958929177,-0.010940144067376673,0.2338408453960605,-0.10151991875740053],[0.10541823835504223,-0.358497810569669,-0.566477519834404,-0.6953488695446737,-0.2949415864352776,0.7663798874007196],[0.018123088267827638,0.41904400249491375,-0.0953005387628602,0.3624058705767851,0.6984987461309675,-0.5324917274585053]]},{"inputs":[1,0,0,1,0,0],"outputs":[1,0,0,0],"biases":[-0.4073083535574134,0.7437511284675526,0.15402074395345558,0.09552476261494422],"weights":[[0.08986402619808251,0.7546941443154381,-0.16469022653102283,-0.2106003941730844],[0.23860708829180502,-0.17735262749724126,0.22090970269312815,-0.7568955734119749],[0.718255333747893,0.4207331703525029,0.31753290447670723,-0.34774574389942914],[-0.35067525296236773,-0.05995149772479126,0.316996901288397,-0.006557125042761847],[0.20030021346798627,0.053122914671377836,-0.6398640832676272,0.0009787881750192157],[-0.3439625870606182,0.2845434910033073,0.07563514749443523,0.5579436459022228]]}]}